digraph Tree {
node [shape=box, style="filled, rounded", color="black", fontname="helvetica"] ;
edge [fontname="helvetica"] ;
0 [label="P32754 <= 15.01\ngini = 0.83\nsamples = 80\nvalue = [20, 28, 18, 20, 19, 24]\nclass = Colorectal Cancer", fillcolor="#fbfef7"] ;
1 [label="P13611 <= 15.53\ngini = 0.64\nsamples = 19\nvalue = [1, 19, 3, 7, 0, 5]\nclass = Colorectal Cancer", fillcolor="#d5f4aa"] ;
0 -> 1 [labeldistance=2.5, labelangle=45, headlabel="True"] ;
2 [label="O60279 <= 15.87\ngini = 0.49\nsamples = 5\nvalue = [0, 0, 0, 5, 0, 4]\nclass = Lung Cancer", fillcolor="#d7ebfa"] ;
1 -> 2 ;
3 [label="gini = 0.0\nsamples = 2\nvalue = [0, 0, 0, 5, 0, 0]\nclass = Lung Cancer", fillcolor="#399de5"] ;
2 -> 3 ;
4 [label="gini = 0.0\nsamples = 3\nvalue = [0, 0, 0, 0, 0, 4]\nclass = Prostate Cancer", fillcolor="#e5399d"] ;
2 -> 4 ;
5 [label="Q6ZMJ2 <= 14.39\ngini = 0.44\nsamples = 14\nvalue = [1, 19, 3, 2, 0, 1]\nclass = Colorectal Cancer", fillcolor="#bbed75"] ;
1 -> 5 ;
6 [label="P02787 <= 20.82\ngini = 0.18\nsamples = 10\nvalue = [1, 19, 0, 0, 0, 1]\nclass = Colorectal Cancer", fillcolor="#a7e84d"] ;
5 -> 6 ;
7 [label="gini = 0.0\nsamples = 1\nvalue = [1, 0, 0, 0, 0, 0]\nclass = Breast Cancer", fillcolor="#e58139"] ;
6 -> 7 ;
8 [label="P05186 <= 14.75\ngini = 0.09\nsamples = 9\nvalue = [0, 19, 0, 0, 0, 1]\nclass = Colorectal Cancer", fillcolor="#a2e643"] ;
6 -> 8 ;
9 [label="gini = 0.0\nsamples = 1\nvalue = [0, 0, 0, 0, 0, 1]\nclass = Prostate Cancer", fillcolor="#e5399d"] ;
8 -> 9 ;
10 [label="gini = 0.0\nsamples = 8\nvalue = [0, 19, 0, 0, 0, 0]\nclass = Colorectal Cancer", fillcolor="#9de539"] ;
8 -> 10 ;
11 [label="P18065 <= 21.05\ngini = 0.48\nsamples = 4\nvalue = [0, 0, 3, 2, 0, 0]\nclass = Healthy", fillcolor="#bdf6d5"] ;
5 -> 11 ;
12 [label="gini = 0.0\nsamples = 2\nvalue = [0, 0, 3, 0, 0, 0]\nclass = Healthy", fillcolor="#39e581"] ;
11 -> 12 ;
13 [label="gini = 0.0\nsamples = 2\nvalue = [0, 0, 0, 2, 0, 0]\nclass = Lung Cancer", fillcolor="#399de5"] ;
11 -> 13 ;
14 [label="P15144 <= 19.56\ngini = 0.82\nsamples = 61\nvalue = [19, 9, 15, 13, 19, 19]\nclass = Breast Cancer", fillcolor="#ffffff"] ;
0 -> 14 [labeldistance=2.5, labelangle=-45, headlabel="False"] ;
15 [label="P22314 <= 12.97\ngini = 0.81\nsamples = 51\nvalue = [19, 9, 13, 13, 6, 19]\nclass = Breast Cancer", fillcolor="#ffffff"] ;
14 -> 15 ;
16 [label="Q6ZMJ2 <= 14.35\ngini = 0.54\nsamples = 12\nvalue = [0, 1, 1, 11, 0, 5]\nclass = Lung Cancer", fillcolor="#a4d2f3"] ;
15 -> 16 ;
17 [label="P09110 <= 13.4\ngini = 0.27\nsamples = 9\nvalue = [0, 1, 0, 11, 0, 1]\nclass = Lung Cancer", fillcolor="#5aade9"] ;
16 -> 17 ;
18 [label="Q8N807 <= 18.59\ngini = 0.15\nsamples = 8\nvalue = [0, 1, 0, 11, 0, 0]\nclass = Lung Cancer", fillcolor="#4ba6e7"] ;
17 -> 18 ;
19 [label="gini = 0.0\nsamples = 1\nvalue = [0, 1, 0, 0, 0, 0]\nclass = Colorectal Cancer", fillcolor="#9de539"] ;
18 -> 19 ;
20 [label="gini = 0.0\nsamples = 7\nvalue = [0, 0, 0, 11, 0, 0]\nclass = Lung Cancer", fillcolor="#399de5"] ;
18 -> 20 ;
21 [label="gini = 0.0\nsamples = 1\nvalue = [0, 0, 0, 0, 0, 1]\nclass = Prostate Cancer", fillcolor="#e5399d"] ;
17 -> 21 ;
22 [label="P08514 <= 14.68\ngini = 0.32\nsamples = 3\nvalue = [0, 0, 1, 0, 0, 4]\nclass = Prostate Cancer", fillcolor="#ec6ab6"] ;
16 -> 22 ;
23 [label="gini = 0.0\nsamples = 2\nvalue = [0, 0, 0, 0, 0, 4]\nclass = Prostate Cancer", fillcolor="#e5399d"] ;
22 -> 23 ;
24 [label="gini = 0.0\nsamples = 1\nvalue = [0, 0, 1, 0, 0, 0]\nclass = Healthy", fillcolor="#39e581"] ;
22 -> 24 ;
25 [label="P13716 <= 16.63\ngini = 0.78\nsamples = 39\nvalue = [19, 8, 12, 2, 6, 14]\nclass = Breast Cancer", fillcolor="#fcf2ea"] ;
15 -> 25 ;
26 [label="Q7Z4W1 <= 14.6\ngini = 0.7\nsamples = 25\nvalue = [14, 5, 11, 2, 2, 0]\nclass = Breast Cancer", fillcolor="#fcefe5"] ;
25 -> 26 ;
27 [label="O43852 <= 13.81\ngini = 0.38\nsamples = 5\nvalue = [0, 2, 6, 0, 0, 0]\nclass = Healthy", fillcolor="#7beeab"] ;
26 -> 27 ;
28 [label="gini = 0.0\nsamples = 1\nvalue = [0, 2, 0, 0, 0, 0]\nclass = Colorectal Cancer", fillcolor="#9de539"] ;
27 -> 28 ;
29 [label="gini = 0.0\nsamples = 4\nvalue = [0, 0, 6, 0, 0, 0]\nclass = Healthy", fillcolor="#39e581"] ;
27 -> 29 ;
30 [label="P00915 <= 21.44\ngini = 0.65\nsamples = 20\nvalue = [14, 3, 5, 2, 2, 0]\nclass = Breast Cancer", fillcolor="#f4c9aa"] ;
26 -> 30 ;
31 [label="gini = 0.0\nsamples = 5\nvalue = [8, 0, 0, 0, 0, 0]\nclass = Breast Cancer", fillcolor="#e58139"] ;
30 -> 31 ;
32 [label="O95967 <= 15.63\ngini = 0.76\nsamples = 15\nvalue = [6, 3, 5, 2, 2, 0]\nclass = Breast Cancer", fillcolor="#fdf5f0"] ;
30 -> 32 ;
33 [label="P22314 <= 13.91\ngini = 0.69\nsamples = 12\nvalue = [6, 3, 0, 2, 2, 0]\nclass = Breast Cancer", fillcolor="#f7d9c4"] ;
32 -> 33 ;
34 [label="P18065 <= 20.56\ngini = 0.65\nsamples = 6\nvalue = [0, 3, 0, 2, 2, 0]\nclass = Colorectal Cancer", fillcolor="#ebfad7"] ;
33 -> 34 ;
35 [label="Q9UMF0 <= 19.29\ngini = 0.5\nsamples = 3\nvalue = [0, 0, 0, 2, 2, 0]\nclass = Lung Cancer", fillcolor="#ffffff"] ;
34 -> 35 ;
36 [label="gini = 0.0\nsamples = 1\nvalue = [0, 0, 0, 2, 0, 0]\nclass = Lung Cancer", fillcolor="#399de5"] ;
35 -> 36 ;
37 [label="gini = 0.0\nsamples = 2\nvalue = [0, 0, 0, 0, 2, 0]\nclass = Pancreatic Cancer", fillcolor="#8139e5"] ;
35 -> 37 ;
38 [label="gini = 0.0\nsamples = 3\nvalue = [0, 3, 0, 0, 0, 0]\nclass = Colorectal Cancer", fillcolor="#9de539"] ;
34 -> 38 ;
39 [label="gini = 0.0\nsamples = 6\nvalue = [6, 0, 0, 0, 0, 0]\nclass = Breast Cancer", fillcolor="#e58139"] ;
33 -> 39 ;
40 [label="gini = 0.0\nsamples = 3\nvalue = [0, 0, 5, 0, 0, 0]\nclass = Healthy", fillcolor="#39e581"] ;
32 -> 40 ;
41 [label="P18065 <= 19.49\ngini = 0.66\nsamples = 14\nvalue = [5, 3, 1, 0, 4, 14]\nclass = Prostate Cancer", fillcolor="#f4aed7"] ;
25 -> 41 ;
42 [label="P10586 <= 17.58\ngini = 0.57\nsamples = 5\nvalue = [5, 3, 1, 0, 0, 0]\nclass = Breast Cancer", fillcolor="#f6d5bd"] ;
41 -> 42 ;
43 [label="gini = 0.0\nsamples = 3\nvalue = [5, 0, 0, 0, 0, 0]\nclass = Breast Cancer", fillcolor="#e58139"] ;
42 -> 43 ;
44 [label="P00352 <= 17.24\ngini = 0.38\nsamples = 2\nvalue = [0, 3, 1, 0, 0, 0]\nclass = Colorectal Cancer", fillcolor="#beee7b"] ;
42 -> 44 ;
45 [label="gini = 0.0\nsamples = 1\nvalue = [0, 3, 0, 0, 0, 0]\nclass = Colorectal Cancer", fillcolor="#9de539"] ;
44 -> 45 ;
46 [label="gini = 0.0\nsamples = 1\nvalue = [0, 0, 1, 0, 0, 0]\nclass = Healthy", fillcolor="#39e581"] ;
44 -> 46 ;
47 [label="Q9NQ30 <= 11.75\ngini = 0.35\nsamples = 9\nvalue = [0, 0, 0, 0, 4, 14]\nclass = Prostate Cancer", fillcolor="#ec72b9"] ;
41 -> 47 ;
48 [label="gini = 0.0\nsamples = 1\nvalue = [0, 0, 0, 0, 4, 0]\nclass = Pancreatic Cancer", fillcolor="#8139e5"] ;
47 -> 48 ;
49 [label="gini = 0.0\nsamples = 8\nvalue = [0, 0, 0, 0, 0, 14]\nclass = Prostate Cancer", fillcolor="#e5399d"] ;
47 -> 49 ;
50 [label="Q06481 <= 13.22\ngini = 0.23\nsamples = 10\nvalue = [0, 0, 2, 0, 13, 0]\nclass = Pancreatic Cancer", fillcolor="#9457e9"] ;
14 -> 50 ;
51 [label="gini = 0.0\nsamples = 1\nvalue = [0, 0, 2, 0, 0, 0]\nclass = Healthy", fillcolor="#39e581"] ;
50 -> 51 ;
52 [label="gini = 0.0\nsamples = 9\nvalue = [0, 0, 0, 0, 13, 0]\nclass = Pancreatic Cancer", fillcolor="#8139e5"] ;
50 -> 52 ;
}