digraph Tree {
node [shape=box, style="filled, rounded", color="black", fontname="helvetica"] ;
edge [fontname="helvetica"] ;
0 [label="X[264] <= 17.16\ngini = 0.83\nsamples = 74\nvalue = [19, 17, 24, 21, 22, 23]\nclass = Healthy", fillcolor="#fdfffe"] ;
1 [label="X[366] <= 20.81\ngini = 0.81\nsamples = 61\nvalue = [19, 15, 23, 9, 9, 23]\nclass = Healthy", fillcolor="#ffffff"] ;
0 -> 1 [labeldistance=2.5, labelangle=45, headlabel="True"] ;
2 [label="gini = 0.0\nsamples = 5\nvalue = [0, 0, 11, 0, 0, 0]\nclass = Healthy", fillcolor="#39e581"] ;
1 -> 2 ;
3 [label="X[649] <= 12.91\ngini = 0.81\nsamples = 56\nvalue = [19, 15, 12, 9, 9, 23]\nclass = Prostate Cancer", fillcolor="#fdf3f9"] ;
1 -> 3 ;
4 [label="X[165] <= 21.89\ngini = 0.77\nsamples = 33\nvalue = [15, 13, 6, 5, 7, 1]\nclass = Breast Cancer", fillcolor="#fdf8f3"] ;
3 -> 4 ;
5 [label="X[538] <= 12.95\ngini = 0.35\nsamples = 5\nvalue = [2, 0, 0, 0, 7, 0]\nclass = Pancreatic Cancer", fillcolor="#a572ec"] ;
4 -> 5 ;
6 [label="gini = 0.0\nsamples = 1\nvalue = [2, 0, 0, 0, 0, 0]\nclass = Breast Cancer", fillcolor="#e58139"] ;
5 -> 6 ;
7 [label="gini = 0.0\nsamples = 4\nvalue = [0, 0, 0, 0, 7, 0]\nclass = Pancreatic Cancer", fillcolor="#8139e5"] ;
5 -> 7 ;
8 [label="X[334] <= 18.26\ngini = 0.72\nsamples = 28\nvalue = [13, 13, 6, 5, 0, 1]\nclass = Breast Cancer", fillcolor="#ffffff"] ;
4 -> 8 ;
9 [label="X[936] <= 12.41\ngini = 0.28\nsamples = 9\nvalue = [0, 10, 0, 2, 0, 0]\nclass = Colorectal Cancer", fillcolor="#b1ea61"] ;
8 -> 9 ;
10 [label="gini = 0.0\nsamples = 7\nvalue = [0, 10, 0, 0, 0, 0]\nclass = Colorectal Cancer", fillcolor="#9de539"] ;
9 -> 10 ;
11 [label="gini = 0.0\nsamples = 2\nvalue = [0, 0, 0, 2, 0, 0]\nclass = Lung Cancer", fillcolor="#399de5"] ;
9 -> 11 ;
12 [label="X[571] <= 14.89\ngini = 0.67\nsamples = 19\nvalue = [13, 3, 6, 3, 0, 1]\nclass = Breast Cancer", fillcolor="#f6d3ba"] ;
8 -> 12 ;
13 [label="X[572] <= 13.0\ngini = 0.69\nsamples = 11\nvalue = [1, 1, 5, 3, 0, 1]\nclass = Healthy", fillcolor="#cef8e0"] ;
12 -> 13 ;
14 [label="X[742] <= 13.22\ngini = 0.72\nsamples = 5\nvalue = [1, 1, 0, 2, 0, 1]\nclass = Lung Cancer", fillcolor="#cee6f8"] ;
13 -> 14 ;
15 [label="gini = 0.0\nsamples = 2\nvalue = [0, 0, 0, 2, 0, 0]\nclass = Lung Cancer", fillcolor="#399de5"] ;
14 -> 15 ;
16 [label="X[25] <= 12.08\ngini = 0.67\nsamples = 3\nvalue = [1, 1, 0, 0, 0, 1]\nclass = Breast Cancer", fillcolor="#ffffff"] ;
14 -> 16 ;
17 [label="gini = 0.0\nsamples = 1\nvalue = [0, 0, 0, 0, 0, 1]\nclass = Prostate Cancer", fillcolor="#e5399d"] ;
16 -> 17 ;
18 [label="X[295] <= 20.7\ngini = 0.5\nsamples = 2\nvalue = [1, 1, 0, 0, 0, 0]\nclass = Breast Cancer", fillcolor="#ffffff"] ;
16 -> 18 ;
19 [label="gini = 0.0\nsamples = 1\nvalue = [0, 1, 0, 0, 0, 0]\nclass = Colorectal Cancer", fillcolor="#9de539"] ;
18 -> 19 ;
20 [label="gini = 0.0\nsamples = 1\nvalue = [1, 0, 0, 0, 0, 0]\nclass = Breast Cancer", fillcolor="#e58139"] ;
18 -> 20 ;
21 [label="X[915] <= 19.15\ngini = 0.28\nsamples = 6\nvalue = [0, 0, 5, 1, 0, 0]\nclass = Healthy", fillcolor="#61ea9a"] ;
13 -> 21 ;
22 [label="gini = 0.0\nsamples = 5\nvalue = [0, 0, 5, 0, 0, 0]\nclass = Healthy", fillcolor="#39e581"] ;
21 -> 22 ;
23 [label="gini = 0.0\nsamples = 1\nvalue = [0, 0, 0, 1, 0, 0]\nclass = Lung Cancer", fillcolor="#399de5"] ;
21 -> 23 ;
24 [label="X[707] <= 13.83\ngini = 0.34\nsamples = 8\nvalue = [12, 2, 1, 0, 0, 0]\nclass = Breast Cancer", fillcolor="#eb9e67"] ;
12 -> 24 ;
25 [label="X[543] <= 12.05\ngini = 0.14\nsamples = 7\nvalue = [12, 0, 1, 0, 0, 0]\nclass = Breast Cancer", fillcolor="#e78c49"] ;
24 -> 25 ;
26 [label="gini = 0.0\nsamples = 1\nvalue = [0, 0, 1, 0, 0, 0]\nclass = Healthy", fillcolor="#39e581"] ;
25 -> 26 ;
27 [label="gini = 0.0\nsamples = 6\nvalue = [12, 0, 0, 0, 0, 0]\nclass = Breast Cancer", fillcolor="#e58139"] ;
25 -> 27 ;
28 [label="gini = 0.0\nsamples = 1\nvalue = [0, 2, 0, 0, 0, 0]\nclass = Colorectal Cancer", fillcolor="#9de539"] ;
24 -> 28 ;
29 [label="X[333] <= 13.46\ngini = 0.65\nsamples = 23\nvalue = [4, 2, 6, 4, 2, 22]\nclass = Prostate Cancer", fillcolor="#f3a2d1"] ;
3 -> 29 ;
30 [label="X[676] <= 14.33\ngini = 0.66\nsamples = 6\nvalue = [2, 1, 5, 2, 0, 0]\nclass = Healthy", fillcolor="#b5f5d0"] ;
29 -> 30 ;
31 [label="X[386] <= 12.15\ngini = 0.64\nsamples = 3\nvalue = [2, 1, 0, 2, 0, 0]\nclass = Breast Cancer", fillcolor="#ffffff"] ;
30 -> 31 ;
32 [label="gini = 0.0\nsamples = 1\nvalue = [2, 0, 0, 0, 0, 0]\nclass = Breast Cancer", fillcolor="#e58139"] ;
31 -> 32 ;
33 [label="X[138] <= 16.91\ngini = 0.44\nsamples = 2\nvalue = [0, 1, 0, 2, 0, 0]\nclass = Lung Cancer", fillcolor="#9ccef2"] ;
31 -> 33 ;
34 [label="gini = 0.0\nsamples = 1\nvalue = [0, 1, 0, 0, 0, 0]\nclass = Colorectal Cancer", fillcolor="#9de539"] ;
33 -> 34 ;
35 [label="gini = 0.0\nsamples = 1\nvalue = [0, 0, 0, 2, 0, 0]\nclass = Lung Cancer", fillcolor="#399de5"] ;
33 -> 35 ;
36 [label="gini = 0.0\nsamples = 3\nvalue = [0, 0, 5, 0, 0, 0]\nclass = Healthy", fillcolor="#39e581"] ;
30 -> 36 ;
37 [label="X[118] <= 20.4\ngini = 0.45\nsamples = 17\nvalue = [2, 1, 1, 2, 2, 22]\nclass = Prostate Cancer", fillcolor="#ec72b9"] ;
29 -> 37 ;
38 [label="X[30] <= 14.54\ngini = 0.78\nsamples = 6\nvalue = [2, 1, 1, 2, 1, 0]\nclass = Breast Cancer", fillcolor="#ffffff"] ;
37 -> 38 ;
39 [label="gini = 0.0\nsamples = 1\nvalue = [2, 0, 0, 0, 0, 0]\nclass = Breast Cancer", fillcolor="#e58139"] ;
38 -> 39 ;
40 [label="X[499] <= 17.03\ngini = 0.72\nsamples = 5\nvalue = [0, 1, 1, 2, 1, 0]\nclass = Lung Cancer", fillcolor="#cee6f8"] ;
38 -> 40 ;
41 [label="X[497] <= 12.47\ngini = 0.67\nsamples = 3\nvalue = [0, 1, 1, 0, 1, 0]\nclass = Colorectal Cancer", fillcolor="#ffffff"] ;
40 -> 41 ;
42 [label="gini = 0.0\nsamples = 1\nvalue = [0, 0, 1, 0, 0, 0]\nclass = Healthy", fillcolor="#39e581"] ;
41 -> 42 ;
43 [label="X[856] <= 12.37\ngini = 0.5\nsamples = 2\nvalue = [0, 1, 0, 0, 1, 0]\nclass = Colorectal Cancer", fillcolor="#ffffff"] ;
41 -> 43 ;
44 [label="gini = 0.0\nsamples = 1\nvalue = [0, 1, 0, 0, 0, 0]\nclass = Colorectal Cancer", fillcolor="#9de539"] ;
43 -> 44 ;
45 [label="gini = 0.0\nsamples = 1\nvalue = [0, 0, 0, 0, 1, 0]\nclass = Pancreatic Cancer", fillcolor="#8139e5"] ;
43 -> 45 ;
46 [label="gini = 0.0\nsamples = 2\nvalue = [0, 0, 0, 2, 0, 0]\nclass = Lung Cancer", fillcolor="#399de5"] ;
40 -> 46 ;
47 [label="X[46] <= 12.65\ngini = 0.08\nsamples = 11\nvalue = [0, 0, 0, 0, 1, 22]\nclass = Prostate Cancer", fillcolor="#e642a1"] ;
37 -> 47 ;
48 [label="gini = 0.0\nsamples = 10\nvalue = [0, 0, 0, 0, 0, 22]\nclass = Prostate Cancer", fillcolor="#e5399d"] ;
47 -> 48 ;
49 [label="gini = 0.0\nsamples = 1\nvalue = [0, 0, 0, 0, 1, 0]\nclass = Pancreatic Cancer", fillcolor="#8139e5"] ;
47 -> 49 ;
50 [label="X[191] <= 12.49\ngini = 0.59\nsamples = 13\nvalue = [0, 2, 1, 12, 13, 0]\nclass = Pancreatic Cancer", fillcolor="#f7f3fd"] ;
0 -> 50 [labeldistance=2.5, labelangle=-45, headlabel="False"] ;
51 [label="X[512] <= 13.54\ngini = 0.41\nsamples = 9\nvalue = [0, 2, 1, 12, 1, 0]\nclass = Lung Cancer", fillcolor="#72b9ec"] ;
50 -> 51 ;
52 [label="X[710] <= 12.37\ngini = 0.14\nsamples = 6\nvalue = [0, 1, 0, 12, 0, 0]\nclass = Lung Cancer", fillcolor="#49a5e7"] ;
51 -> 52 ;
53 [label="gini = 0.0\nsamples = 5\nvalue = [0, 0, 0, 12, 0, 0]\nclass = Lung Cancer", fillcolor="#399de5"] ;
52 -> 53 ;
54 [label="gini = 0.0\nsamples = 1\nvalue = [0, 1, 0, 0, 0, 0]\nclass = Colorectal Cancer", fillcolor="#9de539"] ;
52 -> 54 ;
55 [label="X[456] <= 18.12\ngini = 0.67\nsamples = 3\nvalue = [0, 1, 1, 0, 1, 0]\nclass = Colorectal Cancer", fillcolor="#ffffff"] ;
51 -> 55 ;
56 [label="gini = 0.0\nsamples = 1\nvalue = [0, 0, 1, 0, 0, 0]\nclass = Healthy", fillcolor="#39e581"] ;
55 -> 56 ;
57 [label="X[135] <= 12.42\ngini = 0.5\nsamples = 2\nvalue = [0, 1, 0, 0, 1, 0]\nclass = Colorectal Cancer", fillcolor="#ffffff"] ;
55 -> 57 ;
58 [label="gini = 0.0\nsamples = 1\nvalue = [0, 0, 0, 0, 1, 0]\nclass = Pancreatic Cancer", fillcolor="#8139e5"] ;
57 -> 58 ;
59 [label="gini = 0.0\nsamples = 1\nvalue = [0, 1, 0, 0, 0, 0]\nclass = Colorectal Cancer", fillcolor="#9de539"] ;
57 -> 59 ;
60 [label="gini = 0.0\nsamples = 4\nvalue = [0, 0, 0, 0, 12, 0]\nclass = Pancreatic Cancer", fillcolor="#8139e5"] ;
50 -> 60 ;
}