digraph Tree {
node [shape=box, style="filled, rounded", color="black", fontname="helvetica"] ;
edge [fontname="helvetica"] ;
0 [label="P41159 <= 11.97\ngini = 0.83\nsamples = 84\nvalue = [27, 19, 15, 20, 20, 25]\nclass = Breast Cancer", fillcolor="#fefdfb"] ;
1 [label="gini = 0.26\nsamples = 6\nvalue = [0, 11, 2, 0, 0, 0]\nclass = Colorectal Cancer", fillcolor="#afea5d"] ;
0 -> 1 [labeldistance=2.5, labelangle=45, headlabel="True"] ;
2 [label="P02144 <= 11.99\ngini = 0.81\nsamples = 78\nvalue = [27, 8, 13, 20, 20, 25]\nclass = Breast Cancer", fillcolor="#fefcfa"] ;
0 -> 2 [labeldistance=2.5, labelangle=-45, headlabel="False"] ;
3 [label="Q7Z4W1 <= 13.97\ngini = 0.43\nsamples = 11\nvalue = [14, 0, 1, 0, 1, 3]\nclass = Breast Cancer", fillcolor="#eda877"] ;
2 -> 3 ;
4 [label="gini = 0.38\nsamples = 2\nvalue = [0, 0, 0, 0, 1, 3]\nclass = Prostate Cancer", fillcolor="#ee7bbe"] ;
3 -> 4 ;
5 [label="P11166 <= 15.06\ngini = 0.12\nsamples = 9\nvalue = [14, 0, 1, 0, 0, 0]\nclass = Breast Cancer", fillcolor="#e78a47"] ;
3 -> 5 ;
6 [label="gini = 0.0\nsamples = 1\nvalue = [0, 0, 1, 0, 0, 0]\nclass = Healthy", fillcolor="#39e581"] ;
5 -> 6 ;
7 [label="gini = 0.0\nsamples = 8\nvalue = [14, 0, 0, 0, 0, 0]\nclass = Breast Cancer", fillcolor="#e58139"] ;
5 -> 7 ;
8 [label="P06276 <= 12.93\ngini = 0.82\nsamples = 67\nvalue = [13, 8, 12, 20, 19, 22]\nclass = Prostate Cancer", fillcolor="#fefafc"] ;
2 -> 8 ;
9 [label="P09486 <= 13.16\ngini = 0.81\nsamples = 59\nvalue = [13, 8, 12, 19, 19, 6]\nclass = Lung Cancer", fillcolor="#ffffff"] ;
8 -> 9 ;
10 [label="gini = 0.0\nsamples = 5\nvalue = [0, 0, 0, 0, 8, 0]\nclass = Pancreatic Cancer", fillcolor="#8139e5"] ;
9 -> 10 ;
11 [label="Q7Z4W1 <= 15.6\ngini = 0.81\nsamples = 54\nvalue = [13, 8, 12, 19, 11, 6]\nclass = Lung Cancer", fillcolor="#eaf4fc"] ;
9 -> 11 ;
12 [label="P05186 <= 16.07\ngini = 0.82\nsamples = 43\nvalue = [13, 7, 12, 7, 9, 6]\nclass = Breast Cancer", fillcolor="#fefcfa"] ;
11 -> 12 ;
13 [label="P27105 <= 12.18\ngini = 0.81\nsamples = 36\nvalue = [11, 7, 11, 7, 3, 6]\nclass = Breast Cancer", fillcolor="#ffffff"] ;
12 -> 13 ;
14 [label="gini = 0.0\nsamples = 4\nvalue = [0, 0, 0, 5, 0, 0]\nclass = Lung Cancer", fillcolor="#399de5"] ;
13 -> 14 ;
15 [label="P00367 <= 16.89\ngini = 0.79\nsamples = 32\nvalue = [11, 7, 11, 2, 3, 6]\nclass = Breast Cancer", fillcolor="#ffffff"] ;
13 -> 15 ;
16 [label="Q9Y3D6 <= 14.36\ngini = 0.7\nsamples = 19\nvalue = [11, 6, 2, 2, 1, 2]\nclass = Breast Cancer", fillcolor="#f8dcc8"] ;
15 -> 16 ;
17 [label="gini = 0.0\nsamples = 2\nvalue = [0, 0, 0, 2, 0, 0]\nclass = Lung Cancer", fillcolor="#399de5"] ;
16 -> 17 ;
18 [label="P55899 <= 14.93\ngini = 0.66\nsamples = 17\nvalue = [11, 6, 2, 0, 1, 2]\nclass = Breast Cancer", fillcolor="#f7d8c1"] ;
16 -> 18 ;
19 [label="P10586 <= 18.31\ngini = 0.72\nsamples = 8\nvalue = [0, 3, 2, 0, 1, 2]\nclass = Colorectal Cancer", fillcolor="#effbde"] ;
18 -> 19 ;
20 [label="gini = 0.48\nsamples = 5\nvalue = [0, 3, 2, 0, 0, 0]\nclass = Colorectal Cancer", fillcolor="#def6bd"] ;
19 -> 20 ;
21 [label="gini = 0.44\nsamples = 3\nvalue = [0, 0, 0, 0, 1, 2]\nclass = Prostate Cancer", fillcolor="#f29cce"] ;
19 -> 21 ;
22 [label="P06732 <= 15.78\ngini = 0.34\nsamples = 9\nvalue = [11, 3, 0, 0, 0, 0]\nclass = Breast Cancer", fillcolor="#eca36f"] ;
18 -> 22 ;
23 [label="Q4LDE5 <= 19.77\ngini = 0.15\nsamples = 8\nvalue = [11, 1, 0, 0, 0, 0]\nclass = Breast Cancer", fillcolor="#e78c4b"] ;
22 -> 23 ;
24 [label="gini = 0.0\nsamples = 7\nvalue = [11, 0, 0, 0, 0, 0]\nclass = Breast Cancer", fillcolor="#e58139"] ;
23 -> 24 ;
25 [label="gini = 0.0\nsamples = 1\nvalue = [0, 1, 0, 0, 0, 0]\nclass = Colorectal Cancer", fillcolor="#9de539"] ;
23 -> 25 ;
26 [label="gini = 0.0\nsamples = 1\nvalue = [0, 2, 0, 0, 0, 0]\nclass = Colorectal Cancer", fillcolor="#9de539"] ;
22 -> 26 ;
27 [label="P62736 <= 13.87\ngini = 0.6\nsamples = 13\nvalue = [0, 1, 9, 0, 2, 4]\nclass = Healthy", fillcolor="#acf4ca"] ;
15 -> 27 ;
28 [label="gini = 0.18\nsamples = 7\nvalue = [0, 0, 9, 0, 0, 1]\nclass = Healthy", fillcolor="#4fe88f"] ;
27 -> 28 ;
29 [label="gini = 0.61\nsamples = 6\nvalue = [0, 1, 0, 0, 2, 3]\nclass = Prostate Cancer", fillcolor="#f8cee6"] ;
27 -> 29 ;
30 [label="gini = 0.49\nsamples = 7\nvalue = [2, 0, 1, 0, 6, 0]\nclass = Pancreatic Cancer", fillcolor="#b78ef0"] ;
12 -> 30 ;
31 [label="Q9UJ14 <= 12.18\ngini = 0.34\nsamples = 11\nvalue = [0, 1, 0, 12, 2, 0]\nclass = Lung Cancer", fillcolor="#67b4eb"] ;
11 -> 31 ;
32 [label="gini = 0.0\nsamples = 1\nvalue = [0, 1, 0, 0, 0, 0]\nclass = Colorectal Cancer", fillcolor="#9de539"] ;
31 -> 32 ;
33 [label="P48357 <= 15.31\ngini = 0.24\nsamples = 10\nvalue = [0, 0, 0, 12, 2, 0]\nclass = Lung Cancer", fillcolor="#5aade9"] ;
31 -> 33 ;
34 [label="Q8IUI8 <= 16.26\ngini = 0.14\nsamples = 9\nvalue = [0, 0, 0, 12, 1, 0]\nclass = Lung Cancer", fillcolor="#49a5e7"] ;
33 -> 34 ;
35 [label="gini = 0.0\nsamples = 8\nvalue = [0, 0, 0, 12, 0, 0]\nclass = Lung Cancer", fillcolor="#399de5"] ;
34 -> 35 ;
36 [label="gini = 0.0\nsamples = 1\nvalue = [0, 0, 0, 0, 1, 0]\nclass = Pancreatic Cancer", fillcolor="#8139e5"] ;
34 -> 36 ;
37 [label="gini = 0.0\nsamples = 1\nvalue = [0, 0, 0, 0, 1, 0]\nclass = Pancreatic Cancer", fillcolor="#8139e5"] ;
33 -> 37 ;
38 [label="P30085 <= 17.28\ngini = 0.11\nsamples = 8\nvalue = [0, 0, 0, 1, 0, 16]\nclass = Prostate Cancer", fillcolor="#e745a3"] ;
8 -> 38 ;
39 [label="gini = 0.0\nsamples = 6\nvalue = [0, 0, 0, 0, 0, 13]\nclass = Prostate Cancer", fillcolor="#e5399d"] ;
38 -> 39 ;
40 [label="gini = 0.38\nsamples = 2\nvalue = [0, 0, 0, 1, 0, 3]\nclass = Prostate Cancer", fillcolor="#ee7bbe"] ;
38 -> 40 ;
}