digraph Tree {
node [shape=box, style="filled, rounded", color="black", fontname="helvetica"] ;
edge [fontname="helvetica"] ;
0 [label="Q06481 <= 14.8\ngini = 0.28\nsamples = 84\nvalue = [[99, 27]\n[107, 19]\n[111, 15]\n[106, 20]\n[106, 20]\n[101, 25]]", fillcolor="#ffffff"] ;
1 [label="O00299 <= 18.53\ngini = 0.26\nsamples = 49\nvalue = [[50, 26]\n[58, 18]\n[66, 10]\n[64, 12]\n[71, 5]\n[71, 5]]", fillcolor="#fdf7f3"] ;
0 -> 1 [labeldistance=2.5, labelangle=45, headlabel="True"] ;
2 [label="Q9NQ30 <= 12.22\ngini = 0.26\nsamples = 38\nvalue = [[46, 10]\n[39, 17]\n[46, 10]\n[45, 11]\n[53, 3]\n[51, 5]]", fillcolor="#fefaf7"] ;
1 -> 2 ;
3 [label="P49773 <= 12.11\ngini = 0.17\nsamples = 9\nvalue = [[5, 8]\n[13, 0]\n[9, 4]\n[13, 0]\n[12, 1]\n[13, 0]]", fillcolor="#f5d0b6"] ;
2 -> 3 ;
4 [label="gini = 0.0\nsamples = 2\nvalue = [[3, 0]\n[3, 0]\n[0, 3]\n[3, 0]\n[3, 0]\n[3, 0]]", fillcolor="#e58139"] ;
3 -> 4 ;
5 [label="P07333 <= 19.11\ngini = 0.11\nsamples = 7\nvalue = [[2, 8]\n[10, 0]\n[9, 1]\n[10, 0]\n[9, 1]\n[10, 0]]", fillcolor="#f0b58a"] ;
3 -> 5 ;
6 [label="gini = 0.0\nsamples = 1\nvalue = [[1, 0]\n[1, 0]\n[1, 0]\n[1, 0]\n[0, 1]\n[1, 0]]", fillcolor="#e58139"] ;
5 -> 6 ;
7 [label="Q7Z4W1 <= 12.33\ngini = 0.07\nsamples = 6\nvalue = [[1, 8]\n[9, 0]\n[8, 1]\n[9, 0]\n[9, 0]\n[9, 0]]", fillcolor="#eb9f68"] ;
5 -> 7 ;
8 [label="gini = 0.0\nsamples = 1\nvalue = [[1, 0]\n[1, 0]\n[0, 1]\n[1, 0]\n[1, 0]\n[1, 0]]", fillcolor="#e58139"] ;
7 -> 8 ;
9 [label="gini = 0.0\nsamples = 5\nvalue = [[0, 8]\n[8, 0]\n[8, 0]\n[8, 0]\n[8, 0]\n[8, 0]]", fillcolor="#e58139"] ;
7 -> 9 ;
10 [label="P13611 <= 16.09\ngini = 0.25\nsamples = 29\nvalue = [[41, 2]\n[26, 17]\n[37, 6]\n[32, 11]\n[41, 2]\n[38, 5]]", fillcolor="#fcf2ea"] ;
2 -> 10 ;
11 [label="P20742 <= 19.39\ngini = 0.19\nsamples = 16\nvalue = [[24, 1]\n[10, 15]\n[22, 3]\n[24, 1]\n[25, 0]\n[20, 5]]", fillcolor="#f7dac4"] ;
10 -> 11 ;
12 [label="Q9UMF0 <= 19.67\ngini = 0.14\nsamples = 4\nvalue = [[7, 0]\n[7, 0]\n[5, 2]\n[7, 0]\n[7, 0]\n[2, 5]]", fillcolor="#f2bf9b"] ;
11 -> 12 ;
13 [label="gini = 0.0\nsamples = 3\nvalue = [[5, 0]\n[5, 0]\n[5, 0]\n[5, 0]\n[5, 0]\n[0, 5]]", fillcolor="#e58139"] ;
12 -> 13 ;
14 [label="gini = 0.0\nsamples = 1\nvalue = [[2, 0]\n[2, 0]\n[0, 2]\n[2, 0]\n[2, 0]\n[2, 0]]", fillcolor="#e58139"] ;
12 -> 14 ;
15 [label="P55899 <= 14.97\ngini = 0.1\nsamples = 12\nvalue = [[17, 1]\n[3, 15]\n[17, 1]\n[17, 1]\n[18, 0]\n[18, 0]]", fillcolor="#eeae80"] ;
11 -> 15 ;
16 [label="gini = 0.0\nsamples = 7\nvalue = [[13, 0]\n[0, 13]\n[13, 0]\n[13, 0]\n[13, 0]\n[13, 0]]", fillcolor="#e58139"] ;
15 -> 16 ;
17 [label="P08758 <= 14.49\ngini = 0.24\nsamples = 5\nvalue = [[4, 1]\n[3, 2]\n[4, 1]\n[4, 1]\n[5, 0]\n[5, 0]]", fillcolor="#fcefe5"] ;
15 -> 17 ;
18 [label="gini = 0.0\nsamples = 2\nvalue = [[2, 0]\n[0, 2]\n[2, 0]\n[2, 0]\n[2, 0]\n[2, 0]]", fillcolor="#e58139"] ;
17 -> 18 ;
19 [label="A0A075B6S2 <= 14.19\ngini = 0.22\nsamples = 3\nvalue = [[2, 1]\n[3, 0]\n[2, 1]\n[2, 1]\n[3, 0]\n[3, 0]]", fillcolor="#fae7d9"] ;
17 -> 19 ;
20 [label="gini = 0.0\nsamples = 1\nvalue = [[1, 0]\n[1, 0]\n[0, 1]\n[1, 0]\n[1, 0]\n[1, 0]]", fillcolor="#e58139"] ;
19 -> 20 ;
21 [label="P24821 <= 16.91\ngini = 0.17\nsamples = 2\nvalue = [[1, 1]\n[2, 0]\n[2, 0]\n[1, 1]\n[2, 0]\n[2, 0]]", fillcolor="#f5cdb1"] ;
19 -> 21 ;
22 [label="gini = 0.0\nsamples = 1\nvalue = [[1, 0]\n[1, 0]\n[1, 0]\n[0, 1]\n[1, 0]\n[1, 0]]", fillcolor="#e58139"] ;
21 -> 22 ;
23 [label="gini = 0.0\nsamples = 1\nvalue = [[0, 1]\n[1, 0]\n[1, 0]\n[1, 0]\n[1, 0]\n[1, 0]]", fillcolor="#e58139"] ;
21 -> 23 ;
24 [label="Q16775 <= 14.71\ngini = 0.21\nsamples = 13\nvalue = [[17, 1]\n[16, 2]\n[15, 3]\n[8, 10]\n[16, 2]\n[18, 0]]", fillcolor="#f9e2d1"] ;
10 -> 24 ;
25 [label="Q06830 <= 18.68\ngini = 0.06\nsamples = 8\nvalue = [[11, 0]\n[11, 0]\n[10, 1]\n[1, 10]\n[11, 0]\n[11, 0]]", fillcolor="#ea9a61"] ;
24 -> 25 ;
26 [label="gini = 0.0\nsamples = 1\nvalue = [[1, 0]\n[1, 0]\n[0, 1]\n[1, 0]\n[1, 0]\n[1, 0]]", fillcolor="#e58139"] ;
25 -> 26 ;
27 [label="gini = 0.0\nsamples = 7\nvalue = [[10, 0]\n[10, 0]\n[10, 0]\n[0, 10]\n[10, 0]\n[10, 0]]", fillcolor="#e58139"] ;
25 -> 27 ;
28 [label="P41159 <= 12.14\ngini = 0.24\nsamples = 5\nvalue = [[6, 1]\n[5, 2]\n[5, 2]\n[7, 0]\n[5, 2]\n[7, 0]]", fillcolor="#fcf1e9"] ;
24 -> 28 ;
29 [label="gini = 0.0\nsamples = 1\nvalue = [[2, 0]\n[0, 2]\n[2, 0]\n[2, 0]\n[2, 0]\n[2, 0]]", fillcolor="#e58139"] ;
28 -> 29 ;
30 [label="P0C0L5 <= 22.8\ngini = 0.21\nsamples = 4\nvalue = [[4, 1]\n[5, 0]\n[3, 2]\n[5, 0]\n[3, 2]\n[5, 0]]", fillcolor="#f9e2d2"] ;
28 -> 30 ;
31 [label="gini = 0.0\nsamples = 1\nvalue = [[2, 0]\n[2, 0]\n[0, 2]\n[2, 0]\n[2, 0]\n[2, 0]]", fillcolor="#e58139"] ;
30 -> 31 ;
32 [label="Q8IW75 <= 13.69\ngini = 0.15\nsamples = 3\nvalue = [[2, 1]\n[3, 0]\n[3, 0]\n[3, 0]\n[1, 2]\n[3, 0]]", fillcolor="#f3c5a3"] ;
30 -> 32 ;
33 [label="gini = 0.0\nsamples = 2\nvalue = [[2, 0]\n[2, 0]\n[2, 0]\n[2, 0]\n[0, 2]\n[2, 0]]", fillcolor="#e58139"] ;
32 -> 33 ;
34 [label="gini = 0.0\nsamples = 1\nvalue = [[0, 1]\n[1, 0]\n[1, 0]\n[1, 0]\n[1, 0]\n[1, 0]]", fillcolor="#e58139"] ;
32 -> 34 ;
35 [label="Q96EP5 <= 12.51\ngini = 0.12\nsamples = 11\nvalue = [[4, 16]\n[19, 1]\n[20, 0]\n[19, 1]\n[18, 2]\n[20, 0]]", fillcolor="#f0b68c"] ;
1 -> 35 ;
36 [label="A0A0B4J1Y9 <= 17.9\ngini = 0.21\nsamples = 3\nvalue = [[4, 0]\n[3, 1]\n[4, 0]\n[3, 1]\n[2, 2]\n[4, 0]]", fillcolor="#f9e0cf"] ;
35 -> 36 ;
37 [label="P35442 <= 18.48\ngini = 0.17\nsamples = 2\nvalue = [[2, 0]\n[1, 1]\n[2, 0]\n[1, 1]\n[2, 0]\n[2, 0]]", fillcolor="#f5cdb1"] ;
36 -> 37 ;
38 [label="gini = 0.0\nsamples = 1\nvalue = [[1, 0]\n[1, 0]\n[1, 0]\n[0, 1]\n[1, 0]\n[1, 0]]", fillcolor="#e58139"] ;
37 -> 38 ;
39 [label="gini = 0.0\nsamples = 1\nvalue = [[1, 0]\n[0, 1]\n[1, 0]\n[1, 0]\n[1, 0]\n[1, 0]]", fillcolor="#e58139"] ;
37 -> 39 ;
40 [label="gini = 0.0\nsamples = 1\nvalue = [[2, 0]\n[2, 0]\n[2, 0]\n[2, 0]\n[0, 2]\n[2, 0]]", fillcolor="#e58139"] ;
36 -> 40 ;
41 [label="gini = 0.0\nsamples = 8\nvalue = [[0, 16]\n[16, 0]\n[16, 0]\n[16, 0]\n[16, 0]\n[16, 0]]", fillcolor="#e58139"] ;
35 -> 41 ;
42 [label="P20827 <= 15.79\ngini = 0.24\nsamples = 35\nvalue = [[49, 1]\n[49, 1]\n[45, 5]\n[42, 8]\n[35, 15]\n[30, 20]]", fillcolor="#fbeee4"] ;
0 -> 42 [labeldistance=2.5, labelangle=-45, headlabel="False"] ;
43 [label="O15143 <= 16.33\ngini = 0.19\nsamples = 18\nvalue = [[30, 1]\n[31, 0]\n[27, 4]\n[27, 4]\n[28, 3]\n[12, 19]]", fillcolor="#f7d9c4"] ;
42 -> 43 ;
44 [label="O60279 <= 16.13\ngini = 0.09\nsamples = 12\nvalue = [[20, 1]\n[21, 0]\n[20, 1]\n[21, 0]\n[20, 1]\n[3, 18]]", fillcolor="#eda877"] ;
43 -> 44 ;
45 [label="P48357 <= 13.63\ngini = 0.24\nsamples = 5\nvalue = [[4, 1]\n[5, 0]\n[4, 1]\n[5, 0]\n[4, 1]\n[3, 2]]", fillcolor="#fcefe5"] ;
44 -> 45 ;
46 [label="P35442 <= 20.73\ngini = 0.17\nsamples = 2\nvalue = [[1, 1]\n[2, 0]\n[2, 0]\n[2, 0]\n[1, 1]\n[2, 0]]", fillcolor="#f5cdb1"] ;
45 -> 46 ;
47 [label="gini = 0.0\nsamples = 1\nvalue = [[0, 1]\n[1, 0]\n[1, 0]\n[1, 0]\n[1, 0]\n[1, 0]]", fillcolor="#e58139"] ;
46 -> 47 ;
48 [label="gini = 0.0\nsamples = 1\nvalue = [[1, 0]\n[1, 0]\n[1, 0]\n[1, 0]\n[0, 1]\n[1, 0]]", fillcolor="#e58139"] ;
46 -> 48 ;
49 [label="Q06830 <= 19.67\ngini = 0.15\nsamples = 3\nvalue = [[3, 0]\n[3, 0]\n[2, 1]\n[3, 0]\n[3, 0]\n[1, 2]]", fillcolor="#f3c5a3"] ;
45 -> 49 ;
50 [label="gini = 0.0\nsamples = 1\nvalue = [[1, 0]\n[1, 0]\n[0, 1]\n[1, 0]\n[1, 0]\n[1, 0]]", fillcolor="#e58139"] ;
49 -> 50 ;
51 [label="gini = 0.0\nsamples = 2\nvalue = [[2, 0]\n[2, 0]\n[2, 0]\n[2, 0]\n[2, 0]\n[0, 2]]", fillcolor="#e58139"] ;
49 -> 51 ;
52 [label="gini = 0.0\nsamples = 7\nvalue = [[16, 0]\n[16, 0]\n[16, 0]\n[16, 0]\n[16, 0]\n[0, 16]]", fillcolor="#e58139"] ;
44 -> 52 ;
53 [label="P02748 <= 24.86\ngini = 0.23\nsamples = 6\nvalue = [[10, 0]\n[10, 0]\n[7, 3]\n[6, 4]\n[8, 2]\n[9, 1]]", fillcolor="#fbece1"] ;
43 -> 53 ;
54 [label="P22314 <= 15.22\ngini = 0.2\nsamples = 4\nvalue = [[6, 0]\n[6, 0]\n[3, 3]\n[6, 0]\n[4, 2]\n[5, 1]]", fillcolor="#f8decb"] ;
53 -> 54 ;
55 [label="Q9Y2Z0 <= 13.64\ngini = 0.15\nsamples = 2\nvalue = [[3, 0]\n[3, 0]\n[3, 0]\n[3, 0]\n[1, 2]\n[2, 1]]", fillcolor="#f3c5a3"] ;
54 -> 55 ;
56 [label="gini = 0.0\nsamples = 1\nvalue = [[1, 0]\n[1, 0]\n[1, 0]\n[1, 0]\n[1, 0]\n[0, 1]]", fillcolor="#e58139"] ;
55 -> 56 ;
57 [label="gini = 0.0\nsamples = 1\nvalue = [[2, 0]\n[2, 0]\n[2, 0]\n[2, 0]\n[0, 2]\n[2, 0]]", fillcolor="#e58139"] ;
55 -> 57 ;
58 [label="gini = 0.0\nsamples = 2\nvalue = [[3, 0]\n[3, 0]\n[0, 3]\n[3, 0]\n[3, 0]\n[3, 0]]", fillcolor="#e58139"] ;
54 -> 58 ;
59 [label="gini = 0.0\nsamples = 2\nvalue = [[4, 0]\n[4, 0]\n[4, 0]\n[0, 4]\n[4, 0]\n[4, 0]]", fillcolor="#e58139"] ;
53 -> 59 ;
60 [label="P00352 <= 15.99\ngini = 0.18\nsamples = 17\nvalue = [[19, 0]\n[18, 1]\n[18, 1]\n[15, 4]\n[7, 12]\n[18, 1]]", fillcolor="#f6d5bc"] ;
42 -> 60 ;
61 [label="P09110 <= 12.97\ngini = 0.17\nsamples = 6\nvalue = [[6, 0]\n[5, 1]\n[5, 1]\n[2, 4]\n[6, 0]\n[6, 0]]", fillcolor="#f5cdb1"] ;
60 -> 61 ;
62 [label="gini = 0.0\nsamples = 4\nvalue = [[4, 0]\n[4, 0]\n[4, 0]\n[0, 4]\n[4, 0]\n[4, 0]]", fillcolor="#e58139"] ;
61 -> 62 ;
63 [label="P32754 <= 14.45\ngini = 0.17\nsamples = 2\nvalue = [[2, 0]\n[1, 1]\n[1, 1]\n[2, 0]\n[2, 0]\n[2, 0]]", fillcolor="#f5cdb1"] ;
61 -> 63 ;
64 [label="gini = 0.0\nsamples = 1\nvalue = [[1, 0]\n[0, 1]\n[1, 0]\n[1, 0]\n[1, 0]\n[1, 0]]", fillcolor="#e58139"] ;
63 -> 64 ;
65 [label="gini = 0.0\nsamples = 1\nvalue = [[1, 0]\n[1, 0]\n[0, 1]\n[1, 0]\n[1, 0]\n[1, 0]]", fillcolor="#e58139"] ;
63 -> 65 ;
66 [label="Q3LXA3 <= 13.01\ngini = 0.05\nsamples = 11\nvalue = [[13, 0]\n[13, 0]\n[13, 0]\n[13, 0]\n[1, 12]\n[12, 1]]", fillcolor="#e9975b"] ;
60 -> 66 ;
67 [label="gini = 0.0\nsamples = 1\nvalue = [[1, 0]\n[1, 0]\n[1, 0]\n[1, 0]\n[1, 0]\n[0, 1]]", fillcolor="#e58139"] ;
66 -> 67 ;
68 [label="gini = 0.0\nsamples = 10\nvalue = [[12, 0]\n[12, 0]\n[12, 0]\n[12, 0]\n[0, 12]\n[12, 0]]", fillcolor="#e58139"] ;
66 -> 68 ;
}